1.675231100856356514e+00,3.731444442044803189e+00,-3.408340776019088469e+00,4.160937156704132001e+00,-1.790788214613546203e-01,1.133307374339429935e-01,-5.028013716564837310e+00,-7.133102130643645955e-01,-1.062284601349005264e+00,2.530496114741914715e-01
-2.197975623497774755e+00,-5.202021294365465759e-02,3.172653789830677695e+00,1.086282298660648404e+00,-1.405037326371064488e+00,2.331444971284851952e+00,1.699949576355759551e-01,7.868827441585709570e-01,1.387347420431081502e-01,-7.206465244701826478e+00
-2.133464353091488741e-01,-6.135760325697707795e-01,8.527588587646972584e-02,4.805489612346192652e-01,9.752050834852634686e-01,4.450773389553286385e-01,8.096016392289724362e-01,-7.248301584570852718e+00,-2.543568002907285130e+00,2.355396989573423472e+00
-1.522217176669338201e+00,-1.320478754174718938e+00,3.095034389842355460e-01,-3.972247596993463414e-01,4.516631400051422385e-01,-2.702600986477427636e+00,1.680102537773916493e+00,-1.218110387532016725e+00,-7.300567397582224949e+00,9.157442308370138395e-01
5.963435311160631969e+00,-5.244982143295335852e+00,-2.282276671502248888e+00,-1.832032157219817936e+00,-2.025504782984737684e+00,-2.950518824479093083e-01,-3.011305211194946763e-01,-2.010393350274811031e+00,-1.997592069785522284e+00,-3.239228799718036900e+00
-1.917534801585695670e+00,-8.219450784286469469e-01,-1.792463499768046420e+00,-7.517374740591751259e-01,6.410816433989480201e-01,-3.225431209323286197e-01,1.253926224845585358e+00,-1.562507546124872970e+00,-1.153760682198102794e+00,5.068018496282390428e-01
-1.599474404361343360e+00,-1.545225603020562000e+00,1.719000040290457720e+00,3.432052095595041208e-01,-7.165497599186922972e-01,-7.006743532960052256e+00,8.531804971733962795e-01,1.213977910801810278e+00,4.444881958961534707e+00,5.654102003222336581e-01
-4.235292102824283686e-04,-2.446221203929733523e+00,-5.587250608083776271e+00,6.815038486338946822e-01,-1.282549532829789118e+00,-4.278127739798970097e+00,3.647404818636598822e+00,-8.011742557674143006e-01,-1.693834856412343326e+00,-3.490754089808940641e+00
1.765980529277410893e+00,2.771084439265886434e+00,2.661754467034319838e+00,-6.950905719379176340e+00,-8.313818408416252526e-01,4.514859036979913753e+00,-9.318367275507456471e-01,2.971897285001578126e+00,-1.990062997758130364e-02,2.802208159036950974e+00
