1.166122283565227846e+01,-4.313676652280082457e+00,4.221707649359135672e+00,-2.209318428734788498e+01,-1.365639370726074020e+01,7.830140734754715837e-01,8.885084130535739533e+00,1.151875902658753503e+01,-2.280432880889871328e+01,3.447794415503312138e+01
-9.089119832189778592e+00,-3.232712159907278338e-01,-5.434261957543593979e+00,7.890221517427503883e+00,9.433682313449023860e-02,3.457484987018625588e+01,-2.987074208633916150e+00,-8.669960276512112429e+00,9.358669183034272976e+00,-2.782228379829254195e+00
2.671181324770756049e+01,-2.535663371823350776e+00,1.050885973025244091e+01,-1.165524998985841165e+00,-1.680872755952238062e+00,2.409727772109158650e+01,4.477724813656398517e+00,-1.711228907576840896e+01,-2.985496387490160686e+01,2.363204370170526758e+01
1.147676920174104076e+01,-1.887832695520219595e+00,-1.392665692939642241e+01,-8.613834673576985068e+00,5.881541137263506869e+01,-1.084791776185038970e+00,-6.460242907601261741e+00,1.092481461834387879e+01,-1.701185439073949013e+01,1.041673299349502813e+01
5.638854061903231241e-02,-4.259985212743830352e-01,-5.321380651320363420e+00,-2.688358541145805525e+00,-5.135655394109208771e+01,3.305285798627978444e+00,1.935481008916814361e+01,-4.135178105353269906e+00,-2.708703776213664316e+00,-1.131640456308413180e-02
-2.371454579053581213e+01,9.266764594932768162e-01,-1.210292463595027890e+01,-1.178823647549899967e+01,-3.816158800846713994e+00,-4.227192058288613907e+01,-5.347665416217446221e+01,-7.991315924492162104e+00,1.939537692306737071e+01,1.949108868453598831e+01
-2.451247529603843489e+01,1.954631756495249562e+00,1.523501637490209282e+00,-3.407466265362870228e+00,-7.892016296892183647e+00,1.504812684952559998e+01,-3.889053618568737436e-01,7.335409900692292595e+00,2.281540172708901082e+01,-3.250706104819792586e+01
-1.968626453292750256e+01,-2.429525334792624891e-01,1.812381315154992789e+00,2.134337753135177707e+01,-3.118201767232440247e+01,-3.907959612012655271e+01,7.572537977694938638e-01,-1.821961525848427499e+01,1.886132985368651305e+01,-5.247123952549090831e+01
-5.046050225090897179e+00,-1.369235993480990121e+00,-2.574133552011080184e+00,5.793138499477741732e+00,-1.238492993735496661e+01,-4.035040199830240226e+01,3.306827624846836677e+00,3.089776264779501957e+00,-1.438535000200713121e+01,-3.878946484796781391e+01
